Language model created by QuickLM on Wed Apr 22 15:01:57 EDT 2020
Copyright (c) 1996-2010 Carnegie Mellon University and Alexander I. Rudnicky

The model is in standard ARPA format, designed by Doug Paul while he was at MITRE.

The code that was used to produce this language model is available in Open Source.
Please visit http://www.speech.cs.cmu.edu/tools/ for more information

The (fixed) discount mass is 0.5. The backoffs are computed using the ratio method.
This model based on a corpus of 101 sentences and 108 words

\data\
ngram 1=108
ngram 2=234
ngram 3=240

\1-grams:
-0.9752 </s> -0.3010
-0.9752 <s> -0.2452
-1.9795 A -0.2914
-2.9795 ACCOUNT -0.2524
-2.5024 ALL -0.2987
-2.3775 AN -0.2987
-2.9795 ANGRY -0.2992
-2.6785 ARE -0.2987
-2.5024 AROUND -0.2509
-2.6785 BROWSER -0.2524
-2.9795 BUILT -0.2987
-2.9795 CAN -0.2987
-2.5024 CLOSE -0.2437
-2.6785 CMD -0.2524
-2.6785 COMMAND -0.3001
-2.9795 CONNECTIONS -0.2524
-2.3775 COPY -0.2914
-2.6785 CREATE -0.2992
-2.6785 CREATOR -0.2524
-2.6785 DATE -0.2519
-2.3775 EMAIL -0.2519
-2.9795 END -0.2524
-2.9795 ENLARGE -0.2955
-2.9795 ENVIRONMENT -0.2524
-2.3775 EXIT -0.2489
-2.6785 FACEBOOK -0.2524
-2.5024 FOR -0.2928
-2.6785 FROM -0.2978
-2.3775 GAME -0.2524
-2.9795 GENERATE -0.2992
-2.5024 GET -0.2997
-2.6785 GITHUB -0.2524
-2.1345 GO -0.2978
-2.5024 GOOGLE -0.2524
-2.5024 GUI -0.2504
-2.9795 HELLO -0.2524
-2.1345 HERE -0.2524
-2.9795 HIDE -0.2955
-2.9795 HOW -0.3001
-2.6785 IN -0.2997
-2.6785 INSTAGRAM -0.2524
-2.9795 INTO -0.2965
-2.3775 IP -0.2978
-2.6785 IPS -0.2997
-2.6785 IS -0.2974
-2.6785 IT -0.2524
-2.9795 LAUCH -0.2992
-2.9795 MAIL -0.2524
-2.5024 MAKE -0.2960
-2.6785 MAXIMISE -0.2463
-2.6785 MAXIMIZE -0.2463
-2.9795 ME -0.2992
-2.6785 MINIMISE -0.2463
-2.6785 MINIMIZE -0.2463
-2.9795 MODE -0.2524
-2.6785 MUSIC -0.2524
-2.6785 NAME -0.2519
-2.9795 NGROCK -0.2524
-2.9795 NGROK -0.2524
-2.6785 NOTE -0.2463
-2.6785 NOVA -0.2992
-2.5024 NOW -0.2524
-2.9795 OF -0.2997
-2.9795 OFF -0.2524
-2.9795 OFFLINE -0.2524
-2.9795 OH -0.2524
-2.9795 ON -0.2992
-1.9795 OPEN -0.2909
-2.9795 OUTLOOK -0.2992
-2.6785 OVER -0.2524
-2.5024 PASTE -0.2955
-2.9795 PLACE -0.3001
-2.2014 PLAY -0.2928
-2.9795 PLEASE -0.2524
-2.6785 PROMPT -0.2524
-2.6785 REDDIT -0.2524
-2.9795 REMEMBER -0.2955
-2.2014 RUN -0.2909
-2.6785 SATELLITE -0.3001
-2.9795 SATELLITES -0.2524
-2.5024 SCAN -0.2494
-2.6785 SCANNER -0.2514
-2.6785 SCREEN -0.2997
-2.9795 SCREENSHOT -0.2978
-2.1345 SEARCH -0.2473
-2.5024 SHOT -0.2489
-2.6785 SONG -0.2524
-2.5024 START -0.2997
-2.6785 TAKE -0.2965
-2.9795 TERMINAL -0.2524
-2.9795 TEXT -0.2524
-2.2806 THE -0.2937
-1.9004 THIS -0.2473
-2.5024 TIME -0.2992
-2.2014 TO -0.2951
-2.9795 TODAY -0.2524
-2.9795 TODAY'S -0.3001
-2.9795 UP -0.2524
-2.9795 VIRTUAL -0.3006
-2.3775 WEB -0.2478
-2.9795 WHAT -0.3001
-2.2806 WHAT'S -0.2969
-2.5024 WHO -0.2987
-2.5024 WIKIPEDIA -0.2489
-2.0253 WINDOW -0.2524
-2.2806 YOU -0.2489
-2.5024 YOUR -0.2992
-2.6785 YOUTUBE -0.2524

\2-grams:
-2.3054 <s> CAN 0.0000
-1.8282 <s> CLOSE 0.0000
-1.7033 <s> COPY 0.0000
-2.3054 <s> CREATE 0.0000
-2.3054 <s> END 0.0000
-2.3054 <s> ENLARGE 0.0000
-1.7033 <s> EXIT 0.0000
-2.3054 <s> GENERATE 0.0000
-1.8282 <s> GET 0.0000
-1.4603 <s> GO 0.0000
-2.3054 <s> HELLO 0.0000
-2.3054 <s> HIDE 0.0000
-2.3054 <s> HOW 0.0000
-2.3054 <s> LAUCH 0.0000
-1.8282 <s> MAKE 0.0000
-2.0043 <s> MAXIMISE 0.0000
-2.0043 <s> MAXIMIZE 0.0000
-2.0043 <s> MINIMISE 0.0000
-2.0043 <s> MINIMIZE 0.0000
-2.3054 <s> NOTE -0.1761
-2.0043 <s> NOVA 0.0000
-2.3054 <s> OFF 0.0000
-2.3054 <s> OH 0.0000
-1.3054 <s> OPEN 0.0000
-2.3054 <s> OVER 0.0000
-1.8282 <s> PASTE 0.0000
-2.3054 <s> PLACE 0.0000
-1.5272 <s> PLAY 0.0000
-2.3054 <s> REMEMBER 0.0000
-1.5272 <s> RUN 0.0000
-2.0043 <s> SCAN -0.1249
-2.3054 <s> SCREEN 0.0000
-2.3054 <s> SCREENSHOT 0.0000
-1.7033 <s> SEARCH -0.1091
-1.8282 <s> START 0.0000
-2.0043 <s> TAKE 0.0000
-2.0043 <s> TIME 0.0000
-2.3054 <s> TODAY'S 0.0000
-2.3054 <s> WEB -0.2430
-2.3054 <s> WHAT 0.0000
-1.6064 <s> WHAT'S 0.0000
-1.8282 <s> WHO 0.0000
-2.3054 <s> WIKIPEDIA -0.2218
-1.0000 A GAME 0.0000
-1.3010 A IP -0.2430
-1.3010 A MAIL 0.0000
-1.3010 A MUSIC 0.0000
-1.3010 A NOTE -0.1761
-1.3010 A SCREEN 0.0000
-1.3010 A SHOT -0.1249
-1.3010 A SONG 0.0000
-1.3010 A VIRTUAL 0.0000
-0.3010 ACCOUNT </s> -0.3010
-0.7782 ALL IPS 0.0000
-0.7782 ALL SATELLITE -0.1761
-0.7782 ALL SATELLITES 0.0000
-0.4260 AN EMAIL 0.0000
-0.9031 AN OUTLOOK 0.0000
-0.3010 ANGRY IP -0.1761
-0.3010 ARE YOU -0.0792
-0.4771 AROUND </s> -0.3010
-0.7782 AROUND FOR -0.2218
-0.3010 BROWSER </s> -0.3010
-0.3010 BUILT YOU -0.0792
-0.3010 CAN YOU -0.2553
-0.7782 CLOSE </s> -0.3010
-0.7782 CLOSE THE -0.2041
-0.7782 CLOSE THIS -0.1513
-0.3010 CMD </s> -0.3010
-0.3010 COMMAND PROMPT 0.0000
-0.3010 CONNECTIONS </s> -0.3010
-0.9031 COPY HERE 0.0000
-0.9031 COPY IT 0.0000
-0.6021 COPY THIS -0.1996
-0.3010 CREATE AN 0.0000
-0.3010 CREATOR </s> -0.3010
-0.6021 DATE </s> -0.3010
-0.6021 DATE TODAY 0.0000
-0.4260 EMAIL </s> -0.3010
-0.9031 EMAIL ACCOUNT 0.0000
-0.3010 END </s> -0.3010
-0.3010 ENLARGE THIS -0.1513
-0.3010 ENVIRONMENT </s> -0.3010
-0.9031 EXIT </s> -0.3010
-0.6021 EXIT FROM 0.0000
-0.9031 EXIT THE -0.2041
-0.3010 FACEBOOK </s> -0.3010
-0.7782 FOR IP -0.2430
-0.7782 FOR IPS 0.0000
-0.7782 FOR THIS -0.2218
-0.3010 FROM HERE 0.0000
-0.3010 GAME </s> -0.3010
-0.3010 GENERATE AN -0.0969
-0.3010 GET ALL 0.0000
-0.3010 GITHUB </s> -0.3010
-1.1461 GO OFFLINE 0.0000
-0.3680 GO TO 0.0000
-0.3010 GOOGLE </s> -0.3010
-0.7782 GUI </s> -0.3010
-0.7782 GUI MODE 0.0000
-0.7782 GUI SCAN -0.2218
-0.3010 HELLO </s> -0.3010
-0.3010 HERE </s> -0.3010
-0.3010 HIDE THIS -0.1513
-0.3010 HOW ARE 0.0000
-0.3010 IN GUI -0.1249
-0.3010 INSTAGRAM </s> -0.3010
-0.3010 INTO A -0.2788
-0.9031 IP GUI -0.2218
-0.9031 IP IN 0.0000
-0.6021 IP SCANNER 0.0000
-0.3010 IPS AROUND -0.1249
-0.6021 IS YOU -0.0792
-0.6021 IS YOUR -0.1249
-0.3010 IT </s> -0.3010
-0.3010 LAUCH IP -0.1761
-0.3010 MAIL </s> -0.3010
-0.4771 MAKE A -0.2553
-0.7782 MAKE ME 0.0000
-0.6021 MAXIMISE </s> -0.3010
-0.6021 MAXIMISE THIS -0.1513
-0.6021 MAXIMIZE </s> -0.3010
-0.6021 MAXIMIZE THIS -0.1513
-0.3010 ME AN -0.0969
-0.6021 MINIMISE </s> -0.3010
-0.6021 MINIMISE THIS -0.1513
-0.6021 MINIMIZE </s> -0.3010
-0.6021 MINIMIZE THIS -0.1513
-0.3010 MODE </s> -0.3010
-0.3010 MUSIC </s> -0.3010
-0.6021 NAME </s> -0.3010
-0.6021 NAME OF 0.0000
-0.3010 NGROCK </s> -0.3010
-0.3010 NGROK </s> -0.3010
-0.6021 NOTE </s> -0.3010
-0.6021 NOTE THIS -0.2218
-0.6021 NOVA CREATE 0.0000
-0.6021 NOVA OVER 0.0000
-0.3010 NOW </s> -0.3010
-0.3010 OF YOUR -0.1249
-0.3010 OFF </s> -0.3010
-0.3010 OFFLINE </s> -0.3010
-0.3010 OH </s> -0.3010
-0.3010 ON WEB -0.2430
-1.3010 OPEN CMD 0.0000
-1.3010 OPEN COMMAND 0.0000
-1.3010 OPEN FACEBOOK 0.0000
-1.3010 OPEN GITHUB 0.0000
-1.3010 OPEN GOOGLE 0.0000
-1.3010 OPEN INSTAGRAM 0.0000
-1.3010 OPEN REDDIT 0.0000
-1.3010 OPEN TERMINAL 0.0000
-1.3010 OPEN WEB -0.1761
-1.3010 OPEN YOUTUBE 0.0000
-0.3010 OUTLOOK EMAIL -0.0969
-0.3010 OVER </s> -0.3010
-0.7782 PASTE HERE 0.0000
-0.7782 PASTE IT 0.0000
-0.7782 PASTE NOW 0.0000
-0.3010 PLACE SATELLITE -0.1761
-0.6021 PLAY A -0.2041
-1.0792 PLAY GAME 0.0000
-1.0792 PLAY MUSIC 0.0000
-1.0792 PLAY SONG 0.0000
-0.3010 PLEASE </s> -0.3010
-0.3010 PROMPT </s> -0.3010
-0.3010 REDDIT </s> -0.3010
-0.3010 REMEMBER THIS -0.2218
-0.7782 RUN A -0.2304
-1.0792 RUN CMD 0.0000
-1.0792 RUN COMMAND 0.0000
-1.0792 RUN GAME 0.0000
-1.0792 RUN WEB -0.1761
-0.6021 SATELLITE CONNECTIONS 0.0000
-0.6021 SATELLITE INTO 0.0000
-0.3010 SATELLITES </s> -0.3010
-0.7782 SCAN </s> -0.3010
-0.7782 SCAN AROUND -0.2218
-0.7782 SCAN FOR -0.2218
-0.6021 SCANNER </s> -0.3010
-0.6021 SCANNER IN 0.0000
-0.3010 SCREEN SHOT 0.0000
-0.3010 SCREENSHOT HERE 0.0000
-0.8451 SEARCH </s> -0.3010
-1.1461 SEARCH FOR -0.2218
-1.1461 SEARCH GOOGLE 0.0000
-1.1461 SEARCH ON 0.0000
-0.8451 SEARCH WIKIPEDIA -0.1249
-0.7782 SHOT </s> -0.3010
-0.4771 SHOT HERE 0.0000
-0.3010 SONG </s> -0.3010
-0.7782 START ANGRY 0.0000
-0.7782 START NGROCK 0.0000
-0.7782 START NGROK 0.0000
-0.3010 TAKE A -0.2553
-0.3010 TERMINAL </s> -0.3010
-0.3010 TEXT </s> -0.3010
-1.0000 THE DATE -0.1761
-1.0000 THE NAME -0.1761
-1.0000 THE TIME -0.1249
-0.6990 THE WINDOW 0.0000
-0.7782 THIS </s> -0.3010
-1.3802 THIS TEXT 0.0000
-0.5351 THIS WINDOW 0.0000
-0.4771 TIME NOW 0.0000
-0.7782 TIME PLEASE 0.0000
-1.0792 TO FACEBOOK 0.0000
-1.0792 TO GITHUB 0.0000
-1.0792 TO GOOGLE 0.0000
-1.0792 TO INSTAGRAM 0.0000
-1.0792 TO REDDIT 0.0000
-1.0792 TO YOUTUBE 0.0000
-0.3010 TODAY </s> -0.3010
-0.3010 TODAY'S DATE -0.1761
-0.3010 UP </s> -0.3010
-0.3010 VIRTUAL ENVIRONMENT 0.0000
-0.9031 WEB </s> -0.3010
-0.6021 WEB BROWSER 0.0000
-0.9031 WEB SEARCH -0.2341
-0.3010 WHAT IS -0.1761
-0.5229 WHAT'S THE -0.1461
-1.0000 WHAT'S UP 0.0000
-1.0000 WHAT'S YOUR -0.2218
-0.7782 WHO ARE 0.0000
-0.7782 WHO BUILT 0.0000
-0.7782 WHO IS -0.1761
-0.4771 WIKIPEDIA </s> -0.3010
-0.7782 WIKIPEDIA SEARCH -0.2341
-0.3010 WINDOW </s> -0.3010
-0.3979 YOU </s> -0.3010
-1.0000 YOU SEARCH -0.2341
-0.4771 YOUR CREATOR 0.0000
-0.7782 YOUR NAME -0.1761
-0.3010 YOUTUBE </s> -0.3010

\3-grams:
-0.3010 <s> CAN YOU
-0.7782 <s> CLOSE </s>
-0.7782 <s> CLOSE THE
-0.7782 <s> CLOSE THIS
-0.9031 <s> COPY HERE
-0.9031 <s> COPY IT
-0.6021 <s> COPY THIS
-0.3010 <s> CREATE AN
-0.3010 <s> END </s>
-0.3010 <s> ENLARGE THIS
-0.9031 <s> EXIT </s>
-0.6021 <s> EXIT FROM
-0.9031 <s> EXIT THE
-0.3010 <s> GENERATE AN
-0.3010 <s> GET ALL
-1.1461 <s> GO OFFLINE
-0.3680 <s> GO TO
-0.3010 <s> HELLO </s>
-0.3010 <s> HIDE THIS
-0.3010 <s> HOW ARE
-0.3010 <s> LAUCH IP
-0.4771 <s> MAKE A
-0.7782 <s> MAKE ME
-0.6021 <s> MAXIMISE </s>
-0.6021 <s> MAXIMISE THIS
-0.6021 <s> MAXIMIZE </s>
-0.6021 <s> MAXIMIZE THIS
-0.6021 <s> MINIMISE </s>
-0.6021 <s> MINIMISE THIS
-0.6021 <s> MINIMIZE </s>
-0.6021 <s> MINIMIZE THIS
-0.3010 <s> NOTE THIS
-0.6021 <s> NOVA CREATE
-0.6021 <s> NOVA OVER
-0.3010 <s> OFF </s>
-0.3010 <s> OH </s>
-1.3010 <s> OPEN CMD
-1.3010 <s> OPEN COMMAND
-1.3010 <s> OPEN FACEBOOK
-1.3010 <s> OPEN GITHUB
-1.3010 <s> OPEN GOOGLE
-1.3010 <s> OPEN INSTAGRAM
-1.3010 <s> OPEN REDDIT
-1.3010 <s> OPEN TERMINAL
-1.3010 <s> OPEN WEB
-1.3010 <s> OPEN YOUTUBE
-0.3010 <s> OVER </s>
-0.7782 <s> PASTE HERE
-0.7782 <s> PASTE IT
-0.7782 <s> PASTE NOW
-0.3010 <s> PLACE SATELLITE
-0.6021 <s> PLAY A
-1.0792 <s> PLAY GAME
-1.0792 <s> PLAY MUSIC
-1.0792 <s> PLAY SONG
-0.3010 <s> REMEMBER THIS
-0.7782 <s> RUN A
-1.0792 <s> RUN CMD
-1.0792 <s> RUN COMMAND
-1.0792 <s> RUN GAME
-1.0792 <s> RUN WEB
-0.6021 <s> SCAN AROUND
-0.6021 <s> SCAN FOR
-0.3010 <s> SCREEN SHOT
-0.3010 <s> SCREENSHOT HERE
-0.9031 <s> SEARCH FOR
-0.9031 <s> SEARCH GOOGLE
-0.9031 <s> SEARCH ON
-0.9031 <s> SEARCH WIKIPEDIA
-0.7782 <s> START ANGRY
-0.7782 <s> START NGROCK
-0.7782 <s> START NGROK
-0.3010 <s> TAKE A
-0.6021 <s> TIME NOW
-0.6021 <s> TIME PLEASE
-0.3010 <s> TODAY'S DATE
-0.3010 <s> WEB SEARCH
-0.3010 <s> WHAT IS
-0.5229 <s> WHAT'S THE
-1.0000 <s> WHAT'S UP
-1.0000 <s> WHAT'S YOUR
-0.7782 <s> WHO ARE
-0.7782 <s> WHO BUILT
-0.7782 <s> WHO IS
-0.3010 <s> WIKIPEDIA SEARCH
-0.3010 A GAME </s>
-0.3010 A IP GUI
-0.3010 A MAIL </s>
-0.3010 A MUSIC </s>
-0.3010 A NOTE </s>
-0.3010 A SCREEN SHOT
-0.3010 A SHOT HERE
-0.3010 A SONG </s>
-0.3010 A VIRTUAL ENVIRONMENT
-0.3010 ALL IPS AROUND
-0.3010 ALL SATELLITE INTO
-0.3010 ALL SATELLITES </s>
-0.4771 AN EMAIL </s>
-0.7782 AN EMAIL ACCOUNT
-0.3010 AN OUTLOOK EMAIL
-0.3010 ANGRY IP SCANNER
-0.3010 ARE YOU </s>
-0.3010 AROUND FOR IP
-0.3010 BUILT YOU </s>
-0.3010 CAN YOU SEARCH
-0.3010 CLOSE THE WINDOW
-0.3010 CLOSE THIS WINDOW
-0.3010 COMMAND PROMPT </s>
-0.3010 COPY HERE </s>
-0.3010 COPY IT </s>
-0.6021 COPY THIS </s>
-0.6021 COPY THIS TEXT
-0.6021 CREATE AN EMAIL
-0.6021 CREATE AN OUTLOOK
-0.3010 DATE TODAY </s>
-0.3010 EMAIL ACCOUNT </s>
-0.3010 ENLARGE THIS WINDOW
-0.3010 EXIT FROM HERE
-0.3010 EXIT THE WINDOW
-0.3010 FOR IP IN
-0.3010 FOR IPS AROUND
-0.3010 FOR THIS </s>
-0.3010 FROM HERE </s>
-0.3010 GENERATE AN EMAIL
-0.7782 GET ALL IPS
-0.7782 GET ALL SATELLITE
-0.7782 GET ALL SATELLITES
-0.3010 GO OFFLINE </s>
-1.0792 GO TO FACEBOOK
-1.0792 GO TO GITHUB
-1.0792 GO TO GOOGLE
-1.0792 GO TO INSTAGRAM
-1.0792 GO TO REDDIT
-1.0792 GO TO YOUTUBE
-0.3010 GUI MODE </s>
-0.3010 GUI SCAN </s>
-0.3010 HIDE THIS WINDOW
-0.3010 HOW ARE YOU
-0.6021 IN GUI </s>
-0.6021 IN GUI MODE
-0.3010 INTO A VIRTUAL
-0.3010 IP GUI SCAN
-0.3010 IP IN GUI
-0.6021 IP SCANNER </s>
-0.6021 IP SCANNER IN
-0.3010 IPS AROUND </s>
-0.3010 IS YOU </s>
-0.3010 IS YOUR CREATOR
-0.3010 LAUCH IP SCANNER
-0.6021 MAKE A MAIL
-0.6021 MAKE A NOTE
-0.3010 MAKE ME AN
-0.3010 MAXIMISE THIS WINDOW
-0.3010 MAXIMIZE THIS WINDOW
-0.3010 ME AN EMAIL
-0.3010 MINIMISE THIS WINDOW
-0.3010 MINIMIZE THIS WINDOW
-0.3010 NAME OF YOUR
-0.3010 NOTE THIS </s>
-0.3010 NOVA CREATE AN
-0.3010 NOVA OVER </s>
-0.3010 OF YOUR CREATOR
-0.3010 ON WEB </s>
-0.3010 OPEN CMD </s>
-0.3010 OPEN COMMAND PROMPT
-0.3010 OPEN FACEBOOK </s>
-0.3010 OPEN GITHUB </s>
-0.3010 OPEN GOOGLE </s>
-0.3010 OPEN INSTAGRAM </s>
-0.3010 OPEN REDDIT </s>
-0.3010 OPEN TERMINAL </s>
-0.3010 OPEN WEB BROWSER
-0.3010 OPEN YOUTUBE </s>
-0.3010 OUTLOOK EMAIL </s>
-0.3010 PASTE HERE </s>
-0.3010 PASTE IT </s>
-0.3010 PASTE NOW </s>
-0.3010 PLACE SATELLITE CONNECTIONS
-0.7782 PLAY A GAME
-0.7782 PLAY A MUSIC
-0.7782 PLAY A SONG
-0.3010 PLAY GAME </s>
-0.3010 PLAY MUSIC </s>
-0.3010 PLAY SONG </s>
-0.3010 REMEMBER THIS </s>
-0.6021 RUN A GAME
-0.6021 RUN A IP
-0.3010 RUN CMD </s>
-0.3010 RUN COMMAND PROMPT
-0.3010 RUN GAME </s>
-0.3010 RUN WEB BROWSER
-0.3010 SATELLITE CONNECTIONS </s>
-0.3010 SATELLITE INTO A
-0.3010 SCAN AROUND FOR
-0.3010 SCAN FOR IPS
-0.3010 SCANNER IN GUI
-0.6021 SCREEN SHOT </s>
-0.6021 SCREEN SHOT HERE
-0.3010 SCREENSHOT HERE </s>
-0.3010 SEARCH FOR THIS
-0.3010 SEARCH GOOGLE </s>
-0.3010 SEARCH ON WEB
-0.3010 SEARCH WIKIPEDIA </s>
-0.3010 SHOT HERE </s>
-0.3010 START ANGRY IP
-0.3010 START NGROCK </s>
-0.3010 START NGROK </s>
-0.6021 TAKE A SCREEN
-0.6021 TAKE A SHOT
-0.3010 THE DATE TODAY
-0.3010 THE NAME OF
-0.3010 THE TIME NOW
-0.3010 THE WINDOW </s>
-0.3010 THIS TEXT </s>
-0.3010 THIS WINDOW </s>
-0.3010 TIME NOW </s>
-0.3010 TIME PLEASE </s>
-0.3010 TO FACEBOOK </s>
-0.3010 TO GITHUB </s>
-0.3010 TO GOOGLE </s>
-0.3010 TO INSTAGRAM </s>
-0.3010 TO REDDIT </s>
-0.3010 TO YOUTUBE </s>
-0.3010 TODAY'S DATE </s>
-0.3010 VIRTUAL ENVIRONMENT </s>
-0.3010 WEB BROWSER </s>
-0.3010 WEB SEARCH </s>
-0.3010 WHAT IS YOU
-0.7782 WHAT'S THE DATE
-0.7782 WHAT'S THE NAME
-0.7782 WHAT'S THE TIME
-0.3010 WHAT'S UP </s>
-0.3010 WHAT'S YOUR NAME
-0.3010 WHO ARE YOU
-0.3010 WHO BUILT YOU
-0.3010 WHO IS YOUR
-0.3010 WIKIPEDIA SEARCH </s>
-0.3010 YOU SEARCH WIKIPEDIA
-0.3010 YOUR CREATOR </s>
-0.3010 YOUR NAME </s>

\end\